<?xml version="1.0"?>
<opencv_storage>
<cascade>
  <stageType>BOOST</stageType>
  <featureType>HAAR</featureType>
  <height>20</height>
  <width>20</width>
  <stageParams>
    <boostType>GAB</boostType>
    <minHitRate>9.9500000476837158e-01</minHitRate>
    <maxFalseAlarm>5.0000000000000000e-01</maxFalseAlarm>
    <weightTrimRate>9.4999999999999996e-01</weightTrimRate>
    <maxDepth>1</maxDepth>
    <maxWeakCount>100</maxWeakCount></stageParams>
  <featureParams>
    <maxCatCount>0</maxCatCount>
    <featSize>1</featSize>
    <mode>BASIC</mode></featureParams>
  <stageNum>7</stageNum>
  <stages>
    <!-- stage 0 -->
    <_>
      <maxWeakCount>2</maxWeakCount>
      <stageThreshold>-1.1592875421047211e-01</stageThreshold>
      <weakClassifiers>
        <_>
          <internalNodes>
            0 -1 11 -1.0617804527282715e-01</internalNodes>
          <leafValues>
            9.3137252330780029e-01 -9.3750000000000000e-01</leafValues></_>
        <_>
          <internalNodes>
            0 -1 7 2.5991126894950867e-02</internalNodes>
          <leafValues>
            -9.3949085474014282e-01 8.2157123088836670e-01</leafValues></_></weakClassifiers></_>
    <!-- stage 1 -->
    <_>
      <maxWeakCount>2</maxWeakCount>
      <stageThreshold>-2.5291177630424500e-01</stageThreshold>
      <weakClassifiers>
        <_>
          <internalNodes>
            0 -1 1 8.2917630672454834e-02</internalNodes>
          <leafValues>
            -8.9041095972061157e-01 8.0474936962127686e-01</leafValues></_>
        <_>
          <internalNodes>
            0 -1 9 -5.6385520845651627e-02</internalNodes>
          <leafValues>
            6.3749921321868896e-01 -9.2929762601852417e-01</leafValues></_></weakClassifiers></_>
    <!-- stage 2 -->
    <_>
      <maxWeakCount>4</maxWeakCount>
      <stageThreshold>-5.8969593048095703e-01</stageThreshold>
      <weakClassifiers>
        <_>
          <internalNodes>
            0 -1 5 1.3604077696800232e-01</internalNodes>
          <leafValues>
            -8.1666666269302368e-01 7.9333335161209106e-01</leafValues></_>
        <_>
          <internalNodes>
            0 -1 24 -2.1707308478653431e-03</internalNodes>
          <leafValues>
            5.8659005165100098e-01 -8.7280315160751343e-01</leafValues></_>
        <_>
          <internalNodes>
            0 -1 3 3.2199621200561523e-02</internalNodes>
          <leafValues>
            -7.6581692695617676e-01 5.9288972616195679e-01</leafValues></_>
        <_>
          <internalNodes>
            0 -1 22 -2.1135006099939346e-03</internalNodes>
          <leafValues>
            4.0619754791259766e-01 -9.2713516950607300e-01</leafValues></_></weakClassifiers></_>
    <!-- stage 3 -->
    <_>
      <maxWeakCount>5</maxWeakCount>
      <stageThreshold>-4.7197842597961426e-01</stageThreshold>
      <weakClassifiers>
        <_>
          <internalNodes>
            0 -1 14 1.5381905250251293e-02</internalNodes>
          <leafValues>
            -6.9523811340332031e-01 7.7414965629577637e-01</leafValues></_>
        <_>
          <internalNodes>
            0 -1 2 8.6842179298400879e-02</internalNodes>
          <leafValues>
            -8.4689164161682129e-01 5.9853285551071167e-01</leafValues></_>
        <_>
          <internalNodes>
            0 -1 16 4.6925367787480354e-03</internalNodes>
          <leafValues>
            -9.9652302265167236e-01 3.4763643145561218e-01</leafValues></_>
        <_>
          <internalNodes>
            0 -1 21 -2.0341966301202774e-03</internalNodes>
          <leafValues>
            2.9529157280921936e-01 -9.6331626176834106e-01</leafValues></_>
        <_>
          <internalNodes>
            0 -1 10 -3.1988634727895260e-03</internalNodes>
          <leafValues>
            4.2722329497337341e-01 -7.6557582616806030e-01</leafValues></_></weakClassifiers></_>
    <!-- stage 4 -->
    <_>
      <maxWeakCount>3</maxWeakCount>
      <stageThreshold>2.1668693050742149e-02</stageThreshold>
      <weakClassifiers>
        <_>
          <internalNodes>
            0 -1 8 -2.1695266477763653e-03</internalNodes>
          <leafValues>
            6.7085427045822144e-01 -7.2440946102142334e-01</leafValues></_>
        <_>
          <internalNodes>
            0 -1 12 6.9132729549892247e-05</internalNodes>
          <leafValues>
            3.9696589112281799e-01 -9.9447697401046753e-01</leafValues></_>
        <_>
          <internalNodes>
            0 -1 13 1.9900866027455777e-04</internalNodes>
          <leafValues>
            3.4911224246025085e-01 -9.7195446491241455e-01</leafValues></_></weakClassifiers></_>
    <!-- stage 5 -->
    <_>
      <maxWeakCount>4</maxWeakCount>
      <stageThreshold>-7.2156506776809692e-01</stageThreshold>
      <weakClassifiers>
        <_>
          <internalNodes>
            0 -1 19 -6.0897477669641376e-04</internalNodes>
          <leafValues>
            6.0000002384185791e-01 -9.3424659967422485e-01</leafValues></_>
        <_>
          <internalNodes>
            0 -1 0 2.3608848452568054e-01</internalNodes>
          <leafValues>
            -7.2592145204544067e-01 5.3832662105560303e-01</leafValues></_>
        <_>
          <internalNodes>
            0 -1 20 -5.0383042544126511e-03</internalNodes>
          <leafValues>
            3.7986761331558228e-01 -8.7262356281280518e-01</leafValues></_>
        <_>
          <internalNodes>
            0 -1 15 -1.0195785434916615e-03</internalNodes>
          <leafValues>
            2.7697992324829102e-01 -9.1611260175704956e-01</leafValues></_></weakClassifiers></_>
    <!-- stage 6 -->
    <_>
      <maxWeakCount>5</maxWeakCount>
      <stageThreshold>-5.9789383411407471e-01</stageThreshold>
      <weakClassifiers>
        <_>
          <internalNodes>
            0 -1 18 -3.0363188125193119e-03</internalNodes>
          <leafValues>
            -8.9447236061096191e-01 6.2044656276702881e-01</leafValues></_>
        <_>
          <internalNodes>
            0 -1 17 5.1310160197317600e-03</internalNodes>
          <leafValues>
            3.8875645399093628e-01 -9.5141690969467163e-01</leafValues></_>
        <_>
          <internalNodes>
            0 -1 23 -2.1307007409632206e-03</internalNodes>
          <leafValues>
            3.2716935873031616e-01 -8.4294515848159790e-01</leafValues></_>
        <_>
          <internalNodes>
            0 -1 6 4.0838862769305706e-03</internalNodes>
          <leafValues>
            -8.6365449428558350e-01 3.2516777515411377e-01</leafValues></_>
        <_>
          <internalNodes>
            0 -1 4 2.5048398971557617e-01</internalNodes>
          <leafValues>
            -6.4582371711730957e-01 4.2559951543807983e-01</leafValues></_></weakClassifiers></_></stages>
  <features>
    <_>
      <rects>
        <_>
          0 3 18 8 -1.</_>
        <_>
          6 3 6 8 3.</_></rects>
      <tilted>0</tilted></_>
    <_>
      <rects>
        <_>
          1 4 15 4 -1.</_>
        <_>
          6 4 5 4 3.</_></rects>
      <tilted>0</tilted></_>
    <_>
      <rects>
        <_>
          1 5 9 11 -1.</_>
        <_>
          4 5 3 11 3.</_></rects>
      <tilted>0</tilted></_>
    <_>
      <rects>
        <_>
          1 7 4 9 -1.</_>
        <_>
          3 7 2 9 2.</_></rects>
      <tilted>0</tilted></_>
    <_>
      <rects>
        <_>
          2 0 10 18 -1.</_>
        <_>
          2 6 10 6 3.</_></rects>
      <tilted>0</tilted></_>
    <_>
      <rects>
        <_>
          3 1 5 18 -1.</_>
        <_>
          3 7 5 6 3.</_></rects>
      <tilted>0</tilted></_>
    <_>
      <rects>
        <_>
          3 4 3 12 -1.</_>
        <_>
          4 4 1 12 3.</_></rects>
      <tilted>0</tilted></_>
    <_>
      <rects>
        <_>
          4 1 1 18 -1.</_>
        <_>
          4 7 1 6 3.</_></rects>
      <tilted>0</tilted></_>
    <_>
      <rects>
        <_>
          4 3 2 10 -1.</_>
        <_>
          4 3 1 5 2.</_>
        <_>
          5 8 1 5 2.</_></rects>
      <tilted>0</tilted></_>
    <_>
      <rects>
        <_>
          4 9 10 4 -1.</_>
        <_>
          9 9 5 4 2.</_></rects>
      <tilted>0</tilted></_>
    <_>
      <rects>
        <_>
          4 14 6 2 -1.</_>
        <_>
          4 15 6 1 2.</_></rects>
      <tilted>0</tilted></_>
    <_>
      <rects>
        <_>
          5 6 12 6 -1.</_>
        <_>
          11 6 6 6 2.</_></rects>
      <tilted>0</tilted></_>
    <_>
      <rects>
        <_>
          5 8 2 1 -1.</_>
        <_>
          6 8 1 1 2.</_></rects>
      <tilted>0</tilted></_>
    <_>
      <rects>
        <_>
          5 8 2 4 -1.</_>
        <_>
          5 8 1 2 2.</_>
        <_>
          6 10 1 2 2.</_></rects>
      <tilted>0</tilted></_>
    <_>
      <rects>
        <_>
          6 1 3 9 -1.</_>
        <_>
          6 4 3 3 3.</_></rects>
      <tilted>0</tilted></_>
    <_>
      <rects>
        <_>
          6 3 2 10 -1.</_>
        <_>
          6 3 1 5 2.</_>
        <_>
          7 8 1 5 2.</_></rects>
      <tilted>0</tilted></_>
    <_>
      <rects>
        <_>
          6 3 6 7 -1.</_>
        <_>
          8 3 2 7 3.</_></rects>
      <tilted>0</tilted></_>
    <_>
      <rects>
        <_>
          7 5 6 2 -1.</_>
        <_>
          9 5 2 2 3.</_></rects>
      <tilted>0</tilted></_>
    <_>
      <rects>
        <_>
          7 5 6 7 -1.</_>
        <_>
          9 5 2 7 3.</_></rects>
      <tilted>0</tilted></_>
    <_>
      <rects>
        <_>
          7 8 2 3 -1.</_>
        <_>
          8 8 1 3 2.</_></rects>
      <tilted>0</tilted></_>
    <_>
      <rects>
        <_>
          7 12 6 1 -1.</_>
        <_>
          10 12 3 1 2.</_></rects>
      <tilted>0</tilted></_>
    <_>
      <rects>
        <_>
          8 8 2 5 -1.</_>
        <_>
          9 8 1 5 2.</_></rects>
      <tilted>0</tilted></_>
    <_>
      <rects>
        <_>
          10 8 2 4 -1.</_>
        <_>
          11 8 1 4 2.</_></rects>
      <tilted>0</tilted></_>
    <_>
      <rects>
        <_>
          11 3 2 4 -1.</_>
        <_>
          12 3 1 4 2.</_></rects>
      <tilted>0</tilted></_>
    <_>
      <rects>
        <_>
          11 6 4 1 -1.</_>
        <_>
          13 6 2 1 2.</_></rects>
      <tilted>0</tilted></_></features></cascade>
</opencv_storage>
