<?xml version="1.0"?>
<opencv_storage>
<stage6>
  <maxWeakCount>5</maxWeakCount>
  <stageThreshold>-5.9789383411407471e-01</stageThreshold>
  <weakClassifiers>
    <_>
      <internalNodes>
        0 -1 47327 -3.0363188125193119e-03</internalNodes>
      <leafValues>
        -8.9447236061096191e-01 6.2044656276702881e-01</leafValues></_>
    <_>
      <internalNodes>
        0 -1 47303 5.1310160197317600e-03</internalNodes>
      <leafValues>
        3.8875645399093628e-01 -9.5141690969467163e-01</leafValues></_>
    <_>
      <internalNodes>
        0 -1 63345 -2.1307007409632206e-03</internalNodes>
      <leafValues>
        3.2716935873031616e-01 -8.4294515848159790e-01</leafValues></_>
    <_>
      <internalNodes>
        0 -1 24048 4.0838862769305706e-03</internalNodes>
      <leafValues>
        -8.6365449428558350e-01 3.2516777515411377e-01</leafValues></_>
    <_>
      <internalNodes>
        0 -1 15312 2.5048398971557617e-01</internalNodes>
      <leafValues>
        -6.4582371711730957e-01 4.2559951543807983e-01</leafValues></_></weakClassifiers></stage6>
</opencv_storage>
